digraph Tree {
node [shape=box, style="filled", color="black", fontname="helvetica"] ;
edge [fontname="helvetica"] ;
0 [label="code <= 88.5\ngini = 0.569\nsamples = 896\nvalue = [90, 323, 483]\nclass = high", fillcolor="#dcc8f8"] ;
1 [label="code <= 54.0\ngini = 0.27\nsamples = 566\nvalue = [90, 1, 475]\nclass = high", fillcolor="#995fea"] ;
0 -> 1 [labeldistance=2.5, labelangle=45, headlabel="True"] ;
2 [label="code <= 52.5\ngini = 0.132\nsamples = 409\nvalue = [29, 0, 380]\nclass = high", fillcolor="#8b48e7"] ;
1 -> 2 ;
3 [label="code <= 51.5\ngini = 0.328\nsamples = 140\nvalue = [29, 0, 111]\nclass = high", fillcolor="#a26dec"] ;
2 -> 3 ;
4 [label="code <= 48.5\ngini = 0.291\nsamples = 130\nvalue = [23, 0, 107]\nclass = high", fillcolor="#9c64eb"] ;
3 -> 4 ;
5 [label="code <= 29.5\ngini = 0.364\nsamples = 96\nvalue = [23, 0, 73]\nclass = high", fillcolor="#a977ed"] ;
4 -> 5 ;
6 [label="code <= 21.5\ngini = 0.308\nsamples = 79\nvalue = [15, 0, 64]\nclass = high", fillcolor="#9f67eb"] ;
5 -> 6 ;
7 [label="A/C <= 0.5\ngini = 0.392\nsamples = 56\nvalue = [15, 0, 41]\nclass = high", fillcolor="#af81ef"] ;
6 -> 7 ;
8 [label="duration <= 75440.0\ngini = 0.266\nsamples = 19\nvalue = [3, 0, 16]\nclass = high", fillcolor="#995eea"] ;
7 -> 8 ;
9 [label="duration <= 8200.0\ngini = 0.133\nsamples = 14\nvalue = [1, 0, 13]\nclass = high", fillcolor="#8b48e7"] ;
8 -> 9 ;
10 [label="gini = 0.375\nsamples = 4\nvalue = [1, 0, 3]\nclass = high", fillcolor="#ab7bee"] ;
9 -> 10 ;
11 [label="gini = 0.0\nsamples = 10\nvalue = [0, 0, 10]\nclass = high", fillcolor="#8139e5"] ;
9 -> 11 ;
12 [label="gini = 0.48\nsamples = 5\nvalue = [2, 0, 3]\nclass = high", fillcolor="#d5bdf6"] ;
8 -> 12 ;
13 [label="duration <= 6200.0\ngini = 0.438\nsamples = 37\nvalue = [12, 0, 25]\nclass = high", fillcolor="#bd98f1"] ;
7 -> 13 ;
14 [label="gini = 0.0\nsamples = 4\nvalue = [0, 0, 4]\nclass = high", fillcolor="#8139e5"] ;
13 -> 14 ;
15 [label="duration <= 6560.0\ngini = 0.463\nsamples = 33\nvalue = [12, 0, 21]\nclass = high", fillcolor="#c9aaf4"] ;
13 -> 15 ;
16 [label="gini = 0.375\nsamples = 4\nvalue = [3, 0, 1]\nclass = low", fillcolor="#eeab7b"] ;
15 -> 16 ;
17 [label="duration <= 11920.0\ngini = 0.428\nsamples = 29\nvalue = [9, 0, 20]\nclass = high", fillcolor="#ba92f1"] ;
15 -> 17 ;
18 [label="gini = 0.245\nsamples = 7\nvalue = [1, 0, 6]\nclass = high", fillcolor="#965ae9"] ;
17 -> 18 ;
19 [label="code <= 6.5\ngini = 0.463\nsamples = 22\nvalue = [8, 0, 14]\nclass = high", fillcolor="#c9aaf4"] ;
17 -> 19 ;
20 [label="duration <= 24920.0\ngini = 0.298\nsamples = 11\nvalue = [2, 0, 9]\nclass = high", fillcolor="#9d65eb"] ;
19 -> 20 ;
21 [label="gini = 0.408\nsamples = 7\nvalue = [2, 0, 5]\nclass = high", fillcolor="#b388ef"] ;
20 -> 21 ;
22 [label="gini = 0.0\nsamples = 4\nvalue = [0, 0, 4]\nclass = high", fillcolor="#8139e5"] ;
20 -> 22 ;
23 [label="code <= 10.5\ngini = 0.496\nsamples = 11\nvalue = [6, 0, 5]\nclass = low", fillcolor="#fbeade"] ;
19 -> 23 ;
24 [label="gini = 0.32\nsamples = 5\nvalue = [4, 0, 1]\nclass = low", fillcolor="#eca06a"] ;
23 -> 24 ;
25 [label="gini = 0.444\nsamples = 6\nvalue = [2, 0, 4]\nclass = high", fillcolor="#c09cf2"] ;
23 -> 25 ;
26 [label="gini = 0.0\nsamples = 23\nvalue = [0, 0, 23]\nclass = high", fillcolor="#8139e5"] ;
6 -> 26 ;
27 [label="code <= 39.5\ngini = 0.498\nsamples = 17\nvalue = [8, 0, 9]\nclass = high", fillcolor="#f1e9fc"] ;
5 -> 27 ;
28 [label="gini = 0.32\nsamples = 5\nvalue = [4, 0, 1]\nclass = low", fillcolor="#eca06a"] ;
27 -> 28 ;
29 [label="duration <= 73440.0\ngini = 0.444\nsamples = 12\nvalue = [4, 0, 8]\nclass = high", fillcolor="#c09cf2"] ;
27 -> 29 ;
30 [label="gini = 0.5\nsamples = 4\nvalue = [2, 0, 2]\nclass = low", fillcolor="#ffffff"] ;
29 -> 30 ;
31 [label="code <= 45.5\ngini = 0.375\nsamples = 8\nvalue = [2, 0, 6]\nclass = high", fillcolor="#ab7bee"] ;
29 -> 31 ;
32 [label="gini = 0.375\nsamples = 4\nvalue = [1, 0, 3]\nclass = high", fillcolor="#ab7bee"] ;
31 -> 32 ;
33 [label="gini = 0.375\nsamples = 4\nvalue = [1, 0, 3]\nclass = high", fillcolor="#ab7bee"] ;
31 -> 33 ;
34 [label="gini = 0.0\nsamples = 34\nvalue = [0, 0, 34]\nclass = high", fillcolor="#8139e5"] ;
4 -> 34 ;
35 [label="M/F <= 0.5\ngini = 0.48\nsamples = 10\nvalue = [6, 0, 4]\nclass = low", fillcolor="#f6d5bd"] ;
3 -> 35 ;
36 [label="gini = 0.32\nsamples = 5\nvalue = [1, 0, 4]\nclass = high", fillcolor="#a06aec"] ;
35 -> 36 ;
37 [label="gini = 0.0\nsamples = 5\nvalue = [5, 0, 0]\nclass = low", fillcolor="#e58139"] ;
35 -> 37 ;
38 [label="gini = 0.0\nsamples = 269\nvalue = [0, 0, 269]\nclass = high", fillcolor="#8139e5"] ;
2 -> 38 ;
39 [label="duration <= 22040.0\ngini = 0.483\nsamples = 157\nvalue = [61, 1, 95]\nclass = high", fillcolor="#d2b9f6"] ;
1 -> 39 ;
40 [label="code <= 85.5\ngini = 0.192\nsamples = 66\nvalue = [6, 1, 59]\nclass = high", fillcolor="#9050e8"] ;
39 -> 40 ;
41 [label="duration <= 14000.0\ngini = 0.346\nsamples = 27\nvalue = [6, 0, 21]\nclass = high", fillcolor="#a572ec"] ;
40 -> 41 ;
42 [label="duration <= 7180.0\ngini = 0.153\nsamples = 12\nvalue = [1, 0, 11]\nclass = high", fillcolor="#8c4be7"] ;
41 -> 42 ;
43 [label="gini = 0.375\nsamples = 4\nvalue = [1, 0, 3]\nclass = high", fillcolor="#ab7bee"] ;
42 -> 43 ;
44 [label="gini = 0.0\nsamples = 8\nvalue = [0, 0, 8]\nclass = high", fillcolor="#8139e5"] ;
42 -> 44 ;
45 [label="duration <= 18280.0\ngini = 0.444\nsamples = 15\nvalue = [5, 0, 10]\nclass = high", fillcolor="#c09cf2"] ;
41 -> 45 ;
46 [label="A/C <= 0.5\ngini = 0.496\nsamples = 11\nvalue = [5, 0, 6]\nclass = high", fillcolor="#eadefb"] ;
45 -> 46 ;
47 [label="gini = 0.375\nsamples = 4\nvalue = [1, 0, 3]\nclass = high", fillcolor="#ab7bee"] ;
46 -> 47 ;
48 [label="gini = 0.49\nsamples = 7\nvalue = [4, 0, 3]\nclass = low", fillcolor="#f8e0ce"] ;
46 -> 48 ;
49 [label="gini = 0.0\nsamples = 4\nvalue = [0, 0, 4]\nclass = high", fillcolor="#8139e5"] ;
45 -> 49 ;
50 [label="code <= 87.5\ngini = 0.05\nsamples = 39\nvalue = [0, 1, 38]\nclass = high", fillcolor="#843ee6"] ;
40 -> 50 ;
51 [label="gini = 0.0\nsamples = 31\nvalue = [0, 0, 31]\nclass = high", fillcolor="#8139e5"] ;
50 -> 51 ;
52 [label="duration <= 10400.0\ngini = 0.219\nsamples = 8\nvalue = [0, 1, 7]\nclass = high", fillcolor="#9355e9"] ;
50 -> 52 ;
53 [label="gini = 0.375\nsamples = 4\nvalue = [0, 1, 3]\nclass = high", fillcolor="#ab7bee"] ;
52 -> 53 ;
54 [label="gini = 0.0\nsamples = 4\nvalue = [0, 0, 4]\nclass = high", fillcolor="#8139e5"] ;
52 -> 54 ;
55 [label="code <= 82.5\ngini = 0.478\nsamples = 91\nvalue = [55, 0, 36]\nclass = low", fillcolor="#f6d3bb"] ;
39 -> 55 ;
56 [label="code <= 81.5\ngini = 0.499\nsamples = 67\nvalue = [32, 0, 35]\nclass = high", fillcolor="#f4eefd"] ;
55 -> 56 ;
57 [label="duration <= 39200.0\ngini = 0.49\nsamples = 49\nvalue = [28, 0, 21]\nclass = low", fillcolor="#f8e0ce"] ;
56 -> 57 ;
58 [label="duration <= 32000.0\ngini = 0.337\nsamples = 14\nvalue = [11, 0, 3]\nclass = low", fillcolor="#eca36f"] ;
57 -> 58 ;
59 [label="duration <= 26120.0\ngini = 0.469\nsamples = 8\nvalue = [5, 0, 3]\nclass = low", fillcolor="#f5cdb0"] ;
58 -> 59 ;
60 [label="gini = 0.375\nsamples = 4\nvalue = [3, 0, 1]\nclass = low", fillcolor="#eeab7b"] ;
59 -> 60 ;
61 [label="gini = 0.5\nsamples = 4\nvalue = [2, 0, 2]\nclass = low", fillcolor="#ffffff"] ;
59 -> 61 ;
62 [label="gini = 0.0\nsamples = 6\nvalue = [6, 0, 0]\nclass = low", fillcolor="#e58139"] ;
58 -> 62 ;
63 [label="duration <= 51200.0\ngini = 0.5\nsamples = 35\nvalue = [17, 0, 18]\nclass = high", fillcolor="#f8f4fe"] ;
57 -> 63 ;
64 [label="duration <= 44040.0\ngini = 0.219\nsamples = 8\nvalue = [1, 0, 7]\nclass = high", fillcolor="#9355e9"] ;
63 -> 64 ;
65 [label="gini = 0.0\nsamples = 4\nvalue = [0, 0, 4]\nclass = high", fillcolor="#8139e5"] ;
64 -> 65 ;
66 [label="gini = 0.375\nsamples = 4\nvalue = [1, 0, 3]\nclass = high", fillcolor="#ab7bee"] ;
64 -> 66 ;
67 [label="code <= 77.5\ngini = 0.483\nsamples = 27\nvalue = [16, 0, 11]\nclass = low", fillcolor="#f7d8c1"] ;
63 -> 67 ;
68 [label="code <= 73.5\ngini = 0.492\nsamples = 16\nvalue = [7, 0, 9]\nclass = high", fillcolor="#e3d3f9"] ;
67 -> 68 ;
69 [label="code <= 64.0\ngini = 0.42\nsamples = 10\nvalue = [7, 0, 3]\nclass = low", fillcolor="#f0b78e"] ;
68 -> 69 ;
70 [label="gini = 0.0\nsamples = 4\nvalue = [4, 0, 0]\nclass = low", fillcolor="#e58139"] ;
69 -> 70 ;
71 [label="gini = 0.5\nsamples = 6\nvalue = [3, 0, 3]\nclass = low", fillcolor="#ffffff"] ;
69 -> 71 ;
72 [label="gini = 0.0\nsamples = 6\nvalue = [0, 0, 6]\nclass = high", fillcolor="#8139e5"] ;
68 -> 72 ;
73 [label="code <= 78.5\ngini = 0.298\nsamples = 11\nvalue = [9, 0, 2]\nclass = low", fillcolor="#eb9d65"] ;
67 -> 73 ;
74 [label="gini = 0.408\nsamples = 7\nvalue = [5, 0, 2]\nclass = low", fillcolor="#efb388"] ;
73 -> 74 ;
75 [label="gini = 0.0\nsamples = 4\nvalue = [4, 0, 0]\nclass = low", fillcolor="#e58139"] ;
73 -> 75 ;
76 [label="A/C <= 0.5\ngini = 0.346\nsamples = 18\nvalue = [4, 0, 14]\nclass = high", fillcolor="#a572ec"] ;
56 -> 76 ;
77 [label="gini = 0.0\nsamples = 7\nvalue = [0, 0, 7]\nclass = high", fillcolor="#8139e5"] ;
76 -> 77 ;
78 [label="duration <= 36600.0\ngini = 0.463\nsamples = 11\nvalue = [4, 0, 7]\nclass = high", fillcolor="#c9aaf4"] ;
76 -> 78 ;
79 [label="gini = 0.5\nsamples = 4\nvalue = [2, 0, 2]\nclass = low", fillcolor="#ffffff"] ;
78 -> 79 ;
80 [label="gini = 0.408\nsamples = 7\nvalue = [2, 0, 5]\nclass = high", fillcolor="#b388ef"] ;
78 -> 80 ;
81 [label="duration <= 33000.0\ngini = 0.08\nsamples = 24\nvalue = [23, 0, 1]\nclass = low", fillcolor="#e68642"] ;
55 -> 81 ;
82 [label="gini = 0.278\nsamples = 6\nvalue = [5, 0, 1]\nclass = low", fillcolor="#ea9a61"] ;
81 -> 82 ;
83 [label="gini = 0.0\nsamples = 18\nvalue = [18, 0, 0]\nclass = low", fillcolor="#e58139"] ;
81 -> 83 ;
84 [label="duration <= 30320.0\ngini = 0.047\nsamples = 330\nvalue = [0, 322, 8]\nclass = mid", fillcolor="#3ee684"] ;
0 -> 84 [labeldistance=2.5, labelangle=-45, headlabel="False"] ;
85 [label="code <= 94.0\ngini = 0.031\nsamples = 322\nvalue = [0, 317, 5]\nclass = mid", fillcolor="#3ce583"] ;
84 -> 85 ;
86 [label="code <= 89.5\ngini = 0.18\nsamples = 40\nvalue = [0, 36, 4]\nclass = mid", fillcolor="#4fe88f"] ;
85 -> 86 ;
87 [label="gini = 0.0\nsamples = 36\nvalue = [0, 36, 0]\nclass = mid", fillcolor="#39e581"] ;
86 -> 87 ;
88 [label="gini = 0.0\nsamples = 4\nvalue = [0, 0, 4]\nclass = high", fillcolor="#8139e5"] ;
86 -> 88 ;
89 [label="code <= 97.0\ngini = 0.007\nsamples = 282\nvalue = [0, 281, 1]\nclass = mid", fillcolor="#3ae581"] ;
85 -> 89 ;
90 [label="duration <= 14320.0\ngini = 0.074\nsamples = 26\nvalue = [0, 25, 1]\nclass = mid", fillcolor="#41e686"] ;
89 -> 90 ;
91 [label="gini = 0.0\nsamples = 22\nvalue = [0, 22, 0]\nclass = mid", fillcolor="#39e581"] ;
90 -> 91 ;
92 [label="gini = 0.375\nsamples = 4\nvalue = [0, 3, 1]\nclass = mid", fillcolor="#7beeab"] ;
90 -> 92 ;
93 [label="gini = 0.0\nsamples = 256\nvalue = [0, 256, 0]\nclass = mid", fillcolor="#39e581"] ;
89 -> 93 ;
94 [label="duration <= 35880.0\ngini = 0.469\nsamples = 8\nvalue = [0, 5, 3]\nclass = mid", fillcolor="#b0f5cd"] ;
84 -> 94 ;
95 [label="gini = 0.5\nsamples = 4\nvalue = [0, 2, 2]\nclass = mid", fillcolor="#ffffff"] ;
94 -> 95 ;
96 [label="gini = 0.375\nsamples = 4\nvalue = [0, 3, 1]\nclass = mid", fillcolor="#7beeab"] ;
94 -> 96 ;
}